<?xml version="1.0"?>
<!--
24x24 detector for detecting European round red traffic signs.
Created by Jarmo Puttonen <jarmo.puttonen@gmail.com>
-->
<opencv_storage>
    <cascade>
        <stageType>BOOST</stageType>
        <featureType>LBP</featureType>
        <height>24</height>
        <width>24</width>
        <stageParams>
            <boostType>GAB</boostType>
            <minHitRate>9.9900001287460327e-01</minHitRate>
            <maxFalseAlarm>2.0000000298023224e-01</maxFalseAlarm>
            <weightTrimRate>9.4999999999999996e-01</weightTrimRate>
            <maxDepth>1</maxDepth>
            <maxWeakCount>100</maxWeakCount></stageParams>
        <featureParams>
            <maxCatCount>256</maxCatCount>
            <featSize>1</featSize></featureParams>
        <stageNum>21</stageNum>
        <stages>
            <!-- stage 0 -->
            <_>
                <maxWeakCount>7</maxWeakCount>
                <stageThreshold>-4.3602371215820312e-01</stageThreshold>
                <weakClassifiers>
                    <_>
                        <internalNodes>
                            0 -1 267 -67122974 178301672 1186990080 10541736 255480352
                            120552819 190793040 55825579</internalNodes>
                        <leafValues>
                            -6.7824965715408325e-01 8.0425113439559937e-01</leafValues></_>
                    <_>
                        <internalNodes>
                            0 -1 16 -793777662 -1071579134 1073795136 1099628803
                            -1064914262 138 1074202626 1346892371</internalNodes>
                        <leafValues>
                            -7.1691447496414185e-01 7.0579081773757935e-01</leafValues></_>
                    <_>
                        <internalNodes>
                            0 -1 228 -670578546 -1000221628 -1307289574 -268233723
                            -2111405046 450411399 451662 -502293729</internalNodes>
                        <leafValues>
                            -5.7744252681732178e-01 7.4979597330093384e-01</leafValues></_>
                    <_>
                        <internalNodes>
                            0 -1 67 -538720694 -738579225 541207616 305216079 1145045128
                            1447038174 -379529809 1393280667</internalNodes>
                        <leafValues>
                            -6.1127537488937378e-01 6.8857103586196899e-01</leafValues></_>
                    <_>
                        <internalNodes>
                            0 -1 161 -101458912 -45814716 1820036198 1360219503
                            1415100586 84311312 -1609354614 -2010143062</internalNodes>
                        <leafValues>
                            -5.8150154352188110e-01 6.8592792749404907e-01</leafValues></_>
                    <_>
                        <internalNodes>
                            0 -1 87 -393296754 -1073528830 1073857536 1107513360
                            -1064861340 -1073590269 604055587 -407645609</internalNodes>
                        <leafValues>
                            -6.5060770511627197e-01 6.5948373079299927e-01</leafValues></_>
                    <_>
                        <internalNodes>
                            0 -1 252 -139476501 1116388640 1103720480 92855403
                            -170225113 4373056 1163579788 1743508975</internalNodes>
                        <leafValues>
                            -5.5720883607864380e-01 6.9804221391677856e-01</leafValues></_></weakClassifiers></_>
            <!-- stage 1 -->
            <_>
                <maxWeakCount>9</maxWeakCount>
                <stageThreshold>-4.6660432219505310e-01</stageThreshold>
                <weakClassifiers>
                    <_>
                        <internalNodes>
                            0 -1 233 -137374590 -105923068 1315695246 1045039 -164695488
                            876082464 -1608589905 1047471</internalNodes>
                        <leafValues>
                            -4.8091602325439453e-01 7.3386293649673462e-01</leafValues></_>
                    <_>
                        <internalNodes>
                            0 -1 19 2105529806 -572006537 -20010386 -572686913
                            -717238897 1430353727 -13117186 1736433291</internalNodes>
                        <leafValues>
                            -4.9696817994117737e-01 6.9141358137130737e-01</leafValues></_>
                    <_>
                        <internalNodes>
                            0 -1 47 -442238014 -1421610206 1989107687 -719886590
                            -1070934869 -676333725 1189200843 -1010574397</internalNodes>
                        <leafValues>
                            -4.7229966521263123e-01 6.8424582481384277e-01</leafValues></_>
                    <_>
                        <internalNodes>
                            0 -1 99 -725368632 1980335671 -2113798132 268579346
                            1174929416 -1727981566 1409319691 1459879935</internalNodes>
                        <leafValues>
                            -6.0653328895568848e-01 5.0366091728210449e-01</leafValues></_>
                    <_>
                        <internalNodes>
                            0 -1 221 -208669816 539050880 1073760416 17661969 1883759299
                            58967000 1434928337 128928463</internalNodes>
                        <leafValues>
                            -6.8050628900527954e-01 4.4807484745979309e-01</leafValues></_>
                    <_>
                        <internalNodes>
                            0 -1 259 -266339832 -532229628 1611026434 -769847291
                            -1592999422 -939474816 537059904 -769404633</internalNodes>
                        <leafValues>
                            -5.8062630891799927e-01 5.2867734432220459e-01</leafValues></_>
                    <_>
                        <internalNodes>
                            0 -1 51 -732388920 -745191226 -1790817645 285573123
                            -1031622998 -1818697456 1417686927 1616193815</internalNodes>
                        <leafValues>
                            -6.0795819759368896e-01 5.3118813037872314e-01</leafValues></_>
                    <_>
                        <internalNodes>
                            0 -1 231 -72429245 1601590607 1915129918 -518425010
                            -29496625 1554479942 647860203 -448010561</internalNodes>
                        <leafValues>
                            -4.2768579721450806e-01 7.1651667356491089e-01</leafValues></_>
                    <_>
                        <internalNodes>
                            0 -1 100 -682700728 -1794041472 -2012147508 565483729
                            -1809685330 1890254865 934846698 1931142235</internalNodes>
                        <leafValues>
                            -6.1595720052719116e-01 5.2401202917098999e-01</leafValues></_></weakClassifiers></_>
            <!-- stage 2 -->
            <_>
                <maxWeakCount>12</maxWeakCount>
                <stageThreshold>-1.0648049116134644e+00</stageThreshold>
                <weakClassifiers>
                    <_>
                        <internalNodes>
                            0 -1 145 -43526452 -4612 -1611991137 457174779 -16795682
                            -1619001700 690808495 789310399</internalNodes>
                        <leafValues>
                            -2.2706209123134613e-01 7.8152239322662354e-01</leafValues></_>
                    <_>
                        <internalNodes>
                            0 -1 235 -263718 -1384054816 -1022570480 -1917077403
                            -142614337 -1241454641 1556417016 -6293517</internalNodes>
                        <leafValues>
                            -3.6851951479911804e-01 6.5921509265899658e-01</leafValues></_>
                    <_>
                        <internalNodes>
                            0 -1 5 -606856970 -640206845 21107995 826737152 -792590898
                            -611221494 -209407553 1970546467</internalNodes>
                        <leafValues>
                            -5.3403288125991821e-01 4.9613606929779053e-01</leafValues></_>
                    <_>
                        <internalNodes>
                            0 -1 172 1481593169 -580938337 -1675783649 1884912985
                            1962610694 -1229081605 -12722950 -1077961233</internalNodes>
                        <leafValues>
                            -3.6482292413711548e-01 6.7579549551010132e-01</leafValues></_>
                    <_>
                        <internalNodes>
                            0 -1 59 -12591361 -5514249 -1892675910 995110199 -586119096
                            2100657517 -34952001 -8655394</internalNodes>
                        <leafValues>
                            -3.7496197223663330e-01 6.9676500558853149e-01</leafValues></_>
                    <_>
                        <internalNodes>
                            0 -1 169 -1111494256 -1624138312 -1912797931 -138414276
                            1833938872 -391520438 -2000833107 -329594661</internalNodes>
                        <leafValues>
                            -4.0550255775451660e-01 6.1532813310623169e-01</leafValues></_>
                    <_>
                        <internalNodes>
                            0 -1 103 -577511267 -578976 1845689887 239078971 -629389288
                            -1627209206 -1101738025 -569456914</internalNodes>
                        <leafValues>
                            -4.0413656830787659e-01 5.8274883031845093e-01</leafValues></_>
                    <_>
                        <internalNodes>
                            0 -1 15 2080053606 -1277836740 -727515128 -135883243
                            -402324323 670040105 1185743102 847366243</internalNodes>
                        <leafValues>
                            -5.7145178318023682e-01 4.5419904589653015e-01</leafValues></_>
                    <_>
                        <internalNodes>
                            0 -1 269 -146385374 29868239 1637335104 748898746 -600719039
                            -1073643501 -1199906399 -1547710209</internalNodes>
                        <leafValues>
                            -5.6202244758605957e-01 4.5427212119102478e-01</leafValues></_>
                    <_>
                        <internalNodes>
                            0 -1 95 -92549474 -655927955 2134557772 1487069043 255613550
                            -814088614 1162546711 -265587205</internalNodes>
                        <leafValues>
                            -4.6655577421188354e-01 5.6667459011077881e-01</leafValues></_>
                    <_>
                        <internalNodes>
                            0 -1 217 -539340197 1937603329 -1225032175 -212961449
                            2088656522 -98701993 1280212062 -97915189</internalNodes>
                        <leafValues>
                            -4.4195044040679932e-01 6.2133675813674927e-01</leafValues></_>
                    <_>
                        <internalNodes>
                            0 -1 264 -548148446 -1832570621 -492349436 268908507
                            -736992698 -175493118 1348436131 -1595409433</internalNodes>
                        <leafValues>
                            -5.0351130962371826e-01 5.1975047588348389e-01</leafValues></_></weakClassifiers></_>
            <!-- stage 3 -->
            <_>
                <maxWeakCount>12</maxWeakCount>
                <stageThreshold>-2.8500604629516602e-01</stageThreshold>
                <weakClassifiers>
                    <_>
                        <internalNodes>
                            0 -1 49 -828200990 -605836576 1877299079 1442001681
                            -2036285458 -421540190 -960509973 -807971277</internalNodes>
                        <leafValues>
                            -2.2424241900444031e-01 7.3038673400878906e-01</leafValues></_>
                    <_>
                        <internalNodes>
                            0 -1 149 -1155805040 1057571600 -1724254831 -1644341423
                            -1113740341 -1114577296 -1650010983 -1652061252</internalNodes>
                        <leafValues>
                            -4.0776315331459045e-01 6.1764895915985107e-01</leafValues></_>
                    <_>
                        <internalNodes>
                            0 -1 237 -171056256 -2021530176 -1051688720 -615679688
                            -1412714293 235636899 291225777 -1009778701</internalNodes>
                        <leafValues>
                            -5.0499522686004639e-01 5.0905323028564453e-01</leafValues></_>
                    <_>
                        <internalNodes>
                            0 -1 44 -1920955494 -404424288 -1507312651 -205281550
                            1284422077 -1645217805 1443157727 -278025</internalNodes>
                        <leafValues>
                            -4.3184998631477356e-01 5.9844762086868286e-01</leafValues></_>
                    <_>
                        <internalNodes>
                            0 -1 62 -80616327 -178913555 2047782067 152121293
                            -1930160924 -555755276 -556392625 -10526882</internalNodes>
                        <leafValues>
                            -4.2229470610618591e-01 5.9693419933319092e-01</leafValues></_>
                    <_>
                        <internalNodes>
                            0 -1 150 -447703596 -140546 -621232151 -4341269 -901972806
                            -1385021481 -1077821977 -104983304</internalNodes>
                        <leafValues>
                            -3.7296760082244873e-01 6.6028630733489990e-01</leafValues></_>
                    <_>
                        <internalNodes>
                            0 -1 42 -1215563781 -1768968480 1553657789 1441232402
                            261090783 -1946683425 88473543 -643064641</internalNodes>
                        <leafValues>
                            -3.5463812947273254e-01 6.8469530344009399e-01</leafValues></_>
                    <_>
                        <internalNodes>
                            0 -1 232 -1694760948 -1822269637 -1367376259 -1204586787
                            -707259328 -40497380 -181359366 -128918005</internalNodes>
                        <leafValues>
                            -4.5696720480918884e-01 5.4811871051788330e-01</leafValues></_>
                    <_>
                        <internalNodes>
                            0 -1 222 -1876890992 -1053490744 -1592753769 1071448209
                            -1886748225 -1808653184 -1962855248 -1657043800</internalNodes>
                        <leafValues>
                            -5.0353175401687622e-01 5.3828430175781250e-01</leafValues></_>
                    <_>
                        <internalNodes>
                            0 -1 132 1158959280 2098421622 -1478492210 2042309290
                            536141563 -1082234118 534154938 2139685010</internalNodes>
                        <leafValues>
                            -5.0904184579849243e-01 5.3174781799316406e-01</leafValues></_>
                    <_>
                        <internalNodes>
                            0 -1 275 -99418088 -82914547 786522 -209054963 -1843248978
                            -862452989 -263510613 -32333614</internalNodes>
                        <leafValues>
                            -5.7652246952056885e-01 4.8659500479698181e-01</leafValues></_>
                    <_>
                        <internalNodes>
                            0 -1 291 -1443514144 1317068936 -468672375 1306621101
                            -485719094 -1597341661 25314888 -282885884</internalNodes>
                        <leafValues>
                            -5.3859615325927734e-01 5.0332713127136230e-01</leafValues></_></weakClassifiers></_>
            <!-- stage 4 -->
            <_>
                <maxWeakCount>13</maxWeakCount>
                <stageThreshold>-3.1066787242889404e-01</stageThreshold>
                <weakClassifiers>
                    <_>
                        <internalNodes>
                            0 -1 48 791411698 -514869022 1334804464 -134396432
                            -825823249 -2019622966 1200881115 -536882940</internalNodes>
                        <leafValues>
                            -1.5456238389015198e-01 7.3348784446716309e-01</leafValues></_>
                    <_>
                        <internalNodes>
                            0 -1 65 -536871170 -639928999 77344664 1447443921 -687808304
                            -153328624 -1407923041 -1099956225</internalNodes>
                        <leafValues>
                            -3.5046768188476562e-01 6.3679510354995728e-01</leafValues></_>
                    <_>
                        <internalNodes>
                            0 -1 268 -202383429 -1305807456 791807424 -1224417683
                            -1838549020 -1645029516 426907080 -5255969</internalNodes>
                        <leafValues>
                            -3.6517673730850220e-01 6.1506128311157227e-01</leafValues></_>
                    <_>
                        <internalNodes>
                            0 -1 85 -1593115926 -464586042 -620526269 -107376570
                            -927991307 -2142518327 1644962566 -681060795</internalNodes>
                        <leafValues>
                            -4.9330198764801025e-01 4.6670320630073547e-01</leafValues></_>
                    <_>
                        <internalNodes>
                            0 -1 116 1385579250 -655342246 1526774907 1191182738
                            1611139546 -1987493544 28858827 1058144462</internalNodes>
                        <leafValues>
                            -6.2019217014312744e-01 3.7721246480941772e-01</leafValues></_>
                    <_>
                        <internalNodes>
                            0 -1 234 -172754206 -2001043320 1208472770 155529549
                            -1925988909 -2112188253 1112768669 600541434</internalNodes>
                        <leafValues>
                            -6.1600303649902344e-01 3.7167236208915710e-01</leafValues></_>
                    <_>
                        <internalNodes>
                            0 -1 134 -609740420 -10604630 1441869301 2045187809
                            -159465553 -1082644434 -603329317 -1692911987</internalNodes>
                        <leafValues>
                            -4.7470855712890625e-01 5.1131248474121094e-01</leafValues></_>
                    <_>
                        <internalNodes>
                            0 -1 192 -620766114 1984814159 -41976193 -586236348
                            -1266968380 1023307775 -1662209815 -620372409</internalNodes>
                        <leafValues>
                            -4.2666780948638916e-01 5.5154162645339966e-01</leafValues></_>
                    <_>
                        <internalNodes>
                            0 -1 182 889768864 -1642928888 1359185104 -1814116164
                            -1475740743 -1136418358 -1046883910 453743752</internalNodes>
                        <leafValues>
                            -5.4061985015869141e-01 4.4677713513374329e-01</leafValues></_>
                    <_>
                        <internalNodes>
                            0 -1 204 -553233955 1459992137 -547627425 2063957287
                            -63007546 -217319651 306330538 1512236779</internalNodes>
                        <leafValues>
                            -4.5101380348205566e-01 5.1907026767730713e-01</leafValues></_>
                    <_>
                        <internalNodes>
                            0 -1 249 1907745519 -523757912 -1593777470 -947683772
                            -486788933 -1017522879 255443167 -720898403</internalNodes>
                        <leafValues>
                            -4.0287065505981445e-01 6.0576343536376953e-01</leafValues></_>
                    <_>
                        <internalNodes>
                            0 -1 90 -555552084 -1052475388 -2146430430 50335883 59311112
                            303645194 682373402 2088712203</internalNodes>
                        <leafValues>
                            -6.5103191137313843e-01 3.5707783699035645e-01</leafValues></_>
                    <_>
                        <internalNodes>
                            0 -1 146 -679456744 353245496 1091293201 -1279245928
                            -1207266330 -924254039 -376957812 -2008430589</internalNodes>
                        <leafValues>
                            -5.3409665822982788e-01 4.2657190561294556e-01</leafValues></_></weakClassifiers></_>
            <!-- stage 5 -->
            <_>
                <maxWeakCount>11</maxWeakCount>
                <stageThreshold>-9.7987115383148193e-01</stageThreshold>
                <weakClassifiers>
                    <_>
                        <internalNodes>
                            0 -1 196 -655106440 446738224 -1296641360 -1222557703
                            -8653315 -1079985167 -824374064 -1615273990</internalNodes>
                        <leafValues>
                            -2.1858499944210052e-01 7.0534271001815796e-01</leafValues></_>
                    <_>
                        <internalNodes>
                            0 -1 72 243511041 -149423647 -1312785 -873991562 -306061373
                            -571552341 -826680377 -1058876206</internalNodes>
                        <leafValues>
                            -4.1995215415954590e-01 5.9715849161148071e-01</leafValues></_>
                    <_>
                        <internalNodes>
                            0 -1 230 -19407858 -563484923 -1708263521 -39846059
                            -321729982 -439403737 -1997556306 -528613561</internalNodes>
                        <leafValues>
                            -4.5793581008911133e-01 5.0561094284057617e-01</leafValues></_>
                    <_>
                        <internalNodes>
                            0 -1 153 -1256359659 1028996693 -52589189 1985837950
                            -209937788 -1088553559 -990364494 -1184239874</internalNodes>
                        <leafValues>
                            -4.0283000469207764e-01 5.6874960660934448e-01</leafValues></_>
                    <_>
                        <internalNodes>
                            0 -1 13 -1951799422 -1973361470 -267297789 -1948270144
                            613398437 -1672568639 -844307211 -1517961152</internalNodes>
                        <leafValues>
                            -5.2879756689071655e-01 4.1451343894004822e-01</leafValues></_>
                    <_>
                        <internalNodes>
                            0 -1 56 613073870 216664206 369172626 -214116768 9287586
                            -1062427965 1180136034 -473255869</internalNodes>
                        <leafValues>
                            -5.3408002853393555e-01 4.2617011070251465e-01</leafValues></_>
                    <_>
                        <internalNodes>
                            0 -1 35 2120269491 -17879448 -833840385 -1106358273
                            -831771194 -278987441 -60242689 -1408580595</internalNodes>
                        <leafValues>
                            -4.2132934927940369e-01 5.4828149080276489e-01</leafValues></_>
                    <_>
                        <internalNodes>
                            0 -1 101 -17412882 1894879251 -1879012813 -928976325
                            -1240920014 590091011 -1056391160 -586032663</internalNodes>
                        <leafValues>
                            -4.7862842679023743e-01 4.6859365701675415e-01</leafValues></_>
                    <_>
                        <internalNodes>
                            0 -1 125 1075334260 1476707868 -889234016 516555968
                            1146117610 1326524786 1763944906 816454202</internalNodes>
                        <leafValues>
                            -7.3264062404632568e-01 3.1319648027420044e-01</leafValues></_>
                    <_>
                        <internalNodes>
                            0 -1 173 -1457546113 1471545168 -268440867 1566039811
                            1191178438 -639242372 -1427385226 -1509451364</internalNodes>
                        <leafValues>
                            -4.6511122584342957e-01 5.1152062416076660e-01</leafValues></_>
                    <_>
                        <internalNodes>
                            0 -1 31 1034550235 -559822744 677462762 -867768504
                            -153116632 -702683562 -647842419 -138216213</internalNodes>
                        <leafValues>
                            -3.2310739159584045e-01 7.1814495325088501e-01</leafValues></_></weakClassifiers></_>
            <!-- stage 6 -->
            <_>
                <maxWeakCount>14</maxWeakCount>
                <stageThreshold>-2.4111145734786987e-01</stageThreshold>
                <weakClassifiers>
                    <_>
                        <internalNodes>
                            0 -1 45 -546431108 2070768887 -268438673 2113817892
                            -1224818722 -277184785 -142712897 1173636420</internalNodes>
                        <leafValues>
                            -3.5336193442344666e-01 6.4112329483032227e-01</leafValues></_>
                    <_>
                        <internalNodes>
                            0 -1 238 1876686847 -141508708 1296916933 -581290787
                            780060590 452964210 390430681 -1067</internalNodes>
                        <leafValues>
                            -3.0722233653068542e-01 6.8805110454559326e-01</leafValues></_>
                    <_>
                        <internalNodes>
                            0 -1 194 964116508 926833431 956658551 1360032603 -459461622
                            -558414715 1612598332 -133107988</internalNodes>
                        <leafValues>
                            -5.4656040668487549e-01 4.2108896374702454e-01</leafValues></_>
                    <_>
                        <internalNodes>
                            0 -1 53 2072772563 -150478910 2076516307 1595645795
                            1320152574 -997602226 1128863731 -806380073</internalNodes>
                        <leafValues>
                            -3.3944681286811829e-01 6.4957594871520996e-01</leafValues></_>
                    <_>
                        <internalNodes>
                            0 -1 106 -143209221 -1682131358 776010879 -1958173
                            -2053633804 -19434718 -607273025 -296466862</internalNodes>
                        <leafValues>
                            -3.7811535596847534e-01 5.7609915733337402e-01</leafValues></_>
                    <_>
                        <internalNodes>
                            0 -1 81 -1979044374 1074694786 -1580895242 -1227369168
                            -2004263733 673878152 1350759633 -1773856558</internalNodes>
                        <leafValues>
                            -6.0406893491744995e-01 3.8498497009277344e-01</leafValues></_>
                    <_>
                        <internalNodes>
                            0 -1 21 -107746806 -1865303928 -434489054 -177614475
                            -815267067 539543962 1543862546 -716211617</internalNodes>
                        <leafValues>
                            -5.3969395160675049e-01 3.9995813369750977e-01</leafValues></_>
                    <_>
                        <internalNodes>
                            0 -1 193 -663249857 2131699538 -12583369 -146752188
                            -1597631405 -151542705 -1895960882 -199906232</internalNodes>
                        <leafValues>
                            -3.9252278208732605e-01 5.5236464738845825e-01</leafValues></_>
                    <_>
                        <internalNodes>
                            0 -1 143 -16633548 -1250052257 -131303425 971505343
                            -1103384686 -82460947 -1602439458 -2078311967</internalNodes>
                        <leafValues>
                            -3.9976647496223450e-01 5.5829560756683350e-01</leafValues></_>
                    <_>
                        <internalNodes>
                            0 -1 190 4721552 -1918766752 1405216113 -480407087
                            -1648368983 -1655969728 2949565 -1404161776</internalNodes>
                        <leafValues>
                            -5.3515869379043579e-01 4.3834483623504639e-01</leafValues></_>
                    <_>
                        <internalNodes>
                            0 -1 65 503266175 -4426426 -1801650288 433945809 -1356037384
                            -100803208 -1110401442 2127613821</internalNodes>
                        <leafValues>
                            -4.3844828009605408e-01 5.1582449674606323e-01</leafValues></_>
                    <_>
                        <internalNodes>
                            0 -1 218 -611330741 1407109967 -162546475 -1505804555
                            -816156094 -1085260966 2018236666 -267149518</internalNodes>
                        <leafValues>
                            -4.3234911561012268e-01 5.7207077741622925e-01</leafValues></_>
                    <_>
                        <internalNodes>
                            0 -1 288 2146391391 -1680350374 -1972398545 -794528329
                            -555754915 -1233167113 -802358164 -1001653562</internalNodes>
                        <leafValues>
                            -3.4661060571670532e-01 6.6933482885360718e-01</leafValues></_>
                    <_>
                        <internalNodes>
                            0 -1 180 -101715663 -1106755591 -1299687087 -710976137
                            -270031445 -1873084725 -852249131 -2037590096</internalNodes>
                        <leafValues>
                            -4.1521483659744263e-01 5.9042543172836304e-01</leafValues></_></weakClassifiers></_>
            <!-- stage 7 -->
            <_>
                <maxWeakCount>14</maxWeakCount>
                <stageThreshold>-9.5413796603679657e-02</stageThreshold>
                <weakClassifiers>
                    <_>
                        <internalNodes>
                            0 -1 17 1877442286 -454041665 -285307382 1559682990
                            -1217036617 1626734389 -75534337 1979186894</internalNodes>
                        <leafValues>
                            -2.9921260476112366e-01 6.5161925554275513e-01</leafValues></_>
                    <_>
                        <internalNodes>
                            0 -1 94 -395265 -1312992810 -360669280 1187130 -169065016
                            -789135882 -33659572 -117508097</internalNodes>
                        <leafValues>
                            -3.4626221656799316e-01 6.3474053144454956e-01</leafValues></_>
                    <_>
                        <internalNodes>
                            0 -1 155 -1688529580 1433895233 -2087610473 1584204927
                            -1971317106 -1157988304 -533447056 -1473123414</internalNodes>
                        <leafValues>
                            -4.6613833308219910e-01 4.7555759549140930e-01</leafValues></_>
                    <_>
                        <internalNodes>
                            0 -1 236 1054317947 490404728 1264911620 -49220143
                            -339820545 368246641 90458500 -33587353</internalNodes>
                        <leafValues>
                            -4.4236460328102112e-01 5.4322332143783569e-01</leafValues></_>
                    <_>
                        <internalNodes>
                            0 -1 225 397678673 1281325403 988716239 -1628189566
                            1557029386 705132559 -128206053 -399838603</internalNodes>
                        <leafValues>
                            -4.6710285544395447e-01 4.5812892913818359e-01</leafValues></_>
                    <_>
                        <internalNodes>
                            0 -1 197 -175763062 184674824 -708585328 -1577181375
                            -1116856133 -2062120839 337166529 -1732647345</internalNodes>
                        <leafValues>
                            -5.1747918128967285e-01 4.1658869385719299e-01</leafValues></_>
                    <_>
                        <internalNodes>
                            0 -1 160 1029386580 -553316321 521067727 1472176409
                            -57832080 -1683167358 1747401531 -666855118</internalNodes>
                        <leafValues>
                            -4.7343787550926208e-01 4.7225823998451233e-01</leafValues></_>
                    <_>
                        <internalNodes>
                            0 -1 46 428454819 -1896949790 -1688364075 215910371
                            1179623159 509258175 98357224 -537958958</internalNodes>
                        <leafValues>
                            -4.2254698276519775e-01 5.1291823387145996e-01</leafValues></_>
                    <_>
                        <internalNodes>
                            0 -1 289 773650186 10485888 964727500 -1599442671
                            -1463256349 -1716923899 -312087739 -156178860</internalNodes>
                        <leafValues>
                            -5.2419954538345337e-01 4.2522159218788147e-01</leafValues></_>
                    <_>
                        <internalNodes>
                            0 -1 86 1087830666 1485339782 1616342058 -386150138
                            -1233433206 -530454345 1487326308 1096645203</internalNodes>
                        <leafValues>
                            -6.5368777513504028e-01 3.2633554935455322e-01</leafValues></_>
                    <_>
                        <internalNodes>
                            0 -1 179 -1665262280 -1206939260 1460526163 -1432904775
                            -1840911959 -390900977 -1727150922 -1671635023</internalNodes>
                        <leafValues>
                            -5.1089334487915039e-01 4.4711440801620483e-01</leafValues></_>
                    <_>
                        <internalNodes>
                            0 -1 115 -1074767665 -142631597 1812736627 2089950759
                            -1117756410 -357867753 1561143977 -585458881</internalNodes>
                        <leafValues>
                            -3.8684636354446411e-01 5.7208901643753052e-01</leafValues></_>
                    <_>
                        <internalNodes>
                            0 -1 57 -152395542 1533021102 -1022469886 273178890
                            1471496525 1638984949 590684027 2003173715</internalNodes>
                        <leafValues>
                            -7.2395968437194824e-01 3.1391814351081848e-01</leafValues></_>
                    <_>
                        <internalNodes>
                            0 -1 109 -1486337282 899089798 -130476627 1875300051
                            262695575 -404385574 194907871 -909671855</internalNodes>
                        <leafValues>
                            -4.8311400413513184e-01 4.7946122288703918e-01</leafValues></_></weakClassifiers></_>
            <!-- stage 8 -->
            <_>
                <maxWeakCount>17</maxWeakCount>
                <stageThreshold>-4.6266186237335205e-01</stageThreshold>
                <weakClassifiers>
                    <_>
                        <internalNodes>
                            0 -1 63 1462713319 736550895 -339750970 -1427227416
                            1975456551 1399322451 -6062251 2012674039</internalNodes>
                        <leafValues>
                            -2.2899885475635529e-01 6.7270845174789429e-01</leafValues></_>
                    <_>
                        <internalNodes>
                            0 -1 263 -738207222 -143139237 -297632738 -1964016049
                            -555105792 -202049714 -691013685 -502531105</internalNodes>
                        <leafValues>
                            -3.7389391660690308e-01 5.4786759614944458e-01</leafValues></_>
                    <_>
                        <internalNodes>
                            0 -1 74 1521173473 -305432623 -848315933 -241305775
                            -285372949 -213942279 -1360013333 -940587294</internalNodes>
                        <leafValues>
                            -3.4157985448837280e-01 5.8167827129364014e-01</leafValues></_>
                    <_>
                        <internalNodes>
                            0 -1 216 -1037050876 -1744870059 670559871 1945628205
                            -1494225885 -1207959553 -1530219156 -1393033931</internalNodes>
                        <leafValues>
                            -4.2470946907997131e-01 4.5795583724975586e-01</leafValues></_>
                    <_>
                        <internalNodes>
                            0 -1 147 829796405 -1662601475 -1633766305 1526323838
                            -1077945584 -1159792771 -405148093 -856883588</internalNodes>
                        <leafValues>
                            -4.0967598557472229e-01 5.0318866968154907e-01</leafValues></_>
                    <_>
                        <internalNodes>
                            0 -1 77 -1683758725 -414208891 436592063 -279777292
                            1307561599 -50604579 -976308749 -857963298</internalNodes>
                        <leafValues>
                            -3.0820262432098389e-01 6.3225281238555908e-01</leafValues></_>
                    <_>
                        <internalNodes>
                            0 -1 28 -1334118673 938376190 -352923286 -1317312257
                            1516192845 -162014852 -26673379 -461416609</internalNodes>
                        <leafValues>
                            -3.5036680102348328e-01 5.7046586275100708e-01</leafValues></_>
                    <_>
                        <internalNodes>
                            0 -1 273 -10751520 -1503043398 -1425608448 1561055429
                            -1984788315 -1599602558 -649023245 494850507</internalNodes>
                        <leafValues>
                            -5.2462136745452881e-01 4.1084256768226624e-01</leafValues></_>
                    <_>
                        <internalNodes>
                            0 -1 152 -181289183 -643063920 -46712975 -1713377289
                            -4211395 -1376064223 -1117938418 -1935828841</internalNodes>
                        <leafValues>
                            -3.8571283221244812e-01 5.5572354793548584e-01</leafValues></_>
                    <_>
                        <internalNodes>
                            0 -1 114 850754586 -405579941 1538718876 -734966708
                            -1012783516 -1276880065 1328599279 -1089027397</internalNodes>
                        <leafValues>
                            -3.9134168624877930e-01 5.4219955205917358e-01</leafValues></_>
                    <_>
                        <internalNodes>
                            0 -1 284 1694440556 1546198503 167969314 1391846027
                            1466062927 1176507962 -23485697 -53072810</internalNodes>
                        <leafValues>
                            -5.1796269416809082e-01 4.3582445383071899e-01</leafValues></_>
                    <_>
                        <internalNodes>
                            0 -1 220 -908937344 38470200 54849761 1763741616 831483903
                            462928352 1961604320 -1141908081</internalNodes>
                        <leafValues>
                            -4.9392178654670715e-01 4.4785964488983154e-01</leafValues></_>
                    <_>
                        <internalNodes>
                            0 -1 229 1415568623 2094878033 -1634113837 1379335676
                            -1259627772 -67633449 -1838217665 -1273401586</internalNodes>
                        <leafValues>
                            -4.2300859093666077e-01 5.4868221282958984e-01</leafValues></_>
                    <_>
                        <internalNodes>
                            0 -1 22 -86160049 -932221028 -272839058 -1751321332
                            2147292184 -587436428 1852719140 -731622974</internalNodes>
                        <leafValues>
                            -4.5848017930984497e-01 4.8081216216087341e-01</leafValues></_>
                    <_>
                        <internalNodes>
                            0 -1 40 178430626 -282923166 -367928977 -1010003750
                            651637667 -2004004661 -976334139 -976972562</internalNodes>
                        <leafValues>
                            -4.9327632784843445e-01 4.7182020545005798e-01</leafValues></_>
                    <_>
                        <internalNodes>
                            0 -1 200 -1909817669 -771686488 2126198129 1440513187
                            -1082396945 -1530019845 -2042364888 -1915839242</internalNodes>
                        <leafValues>
                            -3.9818909764289856e-01 5.9378409385681152e-01</leafValues></_>
                    <_>
                        <internalNodes>
                            0 -1 8 394321503 -477189146 1942437887 -1360646172
                            1086848247 2078223859 350551385 -405242665</internalNodes>
                        <leafValues>
                            -4.0986266732215881e-01 5.4867017269134521e-01</leafValues></_></weakClassifiers></_>
            <!-- stage 9 -->
            <_>
                <maxWeakCount>13</maxWeakCount>
                <stageThreshold>-2.1943828463554382e-01</stageThreshold>
                <weakClassifiers>
                    <_>
                        <internalNodes>
                            0 -1 128 -1996687363 950959615 2146742271 -17080337
                            -83923600 -553844737 -1074102479 552875444</internalNodes>
                        <leafValues>
                            -2.4401913583278656e-01 6.6395109891891479e-01</leafValues></_>
                    <_>
                        <internalNodes>
                            0 -1 266 1909976970 2348227 -938950654 6390054 -658918334
                            1082360392 1393136036 1154481518</internalNodes>
                        <leafValues>
                            -5.4814869165420532e-01 4.2718333005905151e-01</leafValues></_>
                    <_>
                        <internalNodes>
                            0 -1 38 -343195663 -269557789 -538968065 -889227309
                            1308196838 -419438635 -999886465 -822739081</internalNodes>
                        <leafValues>
                            -3.7395691871643066e-01 6.0113728046417236e-01</leafValues></_>
                    <_>
                        <internalNodes>
                            0 -1 157 488674356 534057404 63001885 1072647533 -1150223110
                            -1682189426 1001572603 -1361575808</internalNodes>
                        <leafValues>
                            -4.6289044618606567e-01 4.6590295433998108e-01</leafValues></_>
                    <_>
                        <internalNodes>
                            0 -1 202 -563126753 -1951172106 970955647 -476407041
                            -680822191 -218367825 -805373080 -353732452</internalNodes>
                        <leafValues>
                            -3.9903274178504944e-01 5.6542903184890747e-01</leafValues></_>
                    <_>
                        <internalNodes>
                            0 -1 281 -78660694 34308416 -754966528 1564864697 36628362
                            289030240 1762017345 1432207492</internalNodes>
                        <leafValues>
                            -5.3268432617187500e-01 4.0998092293739319e-01</leafValues></_>
                    <_>
                        <internalNodes>
                            0 -1 10 -1901873669 -1456981084 -524825 2002248962
                            -1360013441 -1745037513 1165555089 -1613784190</internalNodes>
                        <leafValues>
                            -4.2952963709831238e-01 5.3185576200485229e-01</leafValues></_>
                    <_>
                        <internalNodes>
                            0 -1 212 -72517136 -2003965039 -176170575 -2049105563
                            -328796648 -2026213495 -620154823 -1885604530</internalNodes>
                        <leafValues>
                            -4.0076258778572083e-01 5.5065339803695679e-01</leafValues></_>
                    <_>
                        <internalNodes>
                            0 -1 261 2071927899 -92444083 -830791980 1361309390
                            -96339961 -17566650 105467631 -128721053</internalNodes>
                        <leafValues>
                            -3.7471166253089905e-01 5.7363212108612061e-01</leafValues></_>
                    <_>
                        <internalNodes>
                            0 -1 211 2080186289 -959501012 534371984 2144198477
                            -1700046949 -2113954012 -843612669 -1902277156</internalNodes>
                        <leafValues>
                            -3.8277515769004822e-01 5.8943831920623779e-01</leafValues></_>
                    <_>
                        <internalNodes>
                            0 -1 176 1611915307 872213252 243355599 2045970911
                            -189542266 1824762178 -499733256 -2144036620</internalNodes>
                        <leafValues>
                            -4.7757631540298462e-01 4.5989143848419189e-01</leafValues></_>
                    <_>
                        <internalNodes>
                            0 -1 135 12440 -560162704 361120287 1544536516 -1465861152
                            -41090023 433688331 203494800</internalNodes>
                        <leafValues>
                            -6.6711783409118652e-01 3.4281662106513977e-01</leafValues></_>
                    <_>
                        <internalNodes>
                            0 -1 256 -1827809608 17025024 1678397633 1595523333
                            672845994 -2004810744 17342672 17535119</internalNodes>
                        <leafValues>
                            -5.8552539348602295e-01 3.9374101161956787e-01</leafValues></_></weakClassifiers></_>
            <!-- stage 10 -->
            <_>
                <maxWeakCount>15</maxWeakCount>
                <stageThreshold>-1.9540248811244965e-01</stageThreshold>
                <weakClassifiers>
                    <_>
                        <internalNodes>
                            0 -1 226 -699447154 -854597769 -1102587045 -16294328
                            705160270 -209813889 -27403362 -83627673</internalNodes>
                        <leafValues>
                            -1.1818181723356247e-01 7.2352939844131470e-01</leafValues></_>
                    <_>
                        <internalNodes>
                            0 -1 70 -78517122 2012677591 -323945364 1799581019 -57097012
                            -1857325490 -1273170433 -31265625</internalNodes>
                        <leafValues>
                            -3.4201210737228394e-01 5.5242884159088135e-01</leafValues></_>
                    <_>
                        <internalNodes>
                            0 -1 83 -1289493597 1112533728 524938702 -715129388
                            -305507366 -504701457 1833137378 -946866233</internalNodes>
                        <leafValues>
                            -3.1822842359542847e-01 5.5630230903625488e-01</leafValues></_>
                    <_>
                        <internalNodes>
                            0 -1 98 -159665426 -647777593 -230986166 -395186473
                            1949253986 -484428989 -1319846497 -1638269253</internalNodes>
                        <leafValues>
                            -3.8533627986907959e-01 4.8998621106147766e-01</leafValues></_>
                    <_>
                        <internalNodes>
                            0 -1 1 -108271142 265131714 -767396786 -616623161 -916857391
                            -396263189 302617417 383685870</internalNodes>
                        <leafValues>
                            -4.5299398899078369e-01 4.0258476138114929e-01</leafValues></_>
                    <_>
                        <internalNodes>
                            0 -1 244 1929375194 -1805178153 313434762 12242475
                            -1740226238 2147141359 1584967371 -6121845</internalNodes>
                        <leafValues>
                            -4.2847111821174622e-01 4.7622635960578918e-01</leafValues></_>
                    <_>
                        <internalNodes>
                            0 -1 214 196263411 -509549981 134176369 -6558251 -1354568056
                            -997527612 -1082296477 -576696541</internalNodes>
                        <leafValues>
                            -3.6390078067779541e-01 5.3184270858764648e-01</leafValues></_>
                    <_>
                        <internalNodes>
                            0 -1 270 -1242317886 58939419 -2080288512 68154163
                            1434461875 113541651 1201291764 -464526913</internalNodes>
                        <leafValues>
                            -4.5639818906784058e-01 4.2272821068763733e-01</leafValues></_>
                    <_>
                        <internalNodes>
                            0 -1 166 1043643100 926109808 994084373 1029785796
                            1367440244 -1197619064 -474898033 988349000</internalNodes>
                        <leafValues>
                            -6.2304061651229858e-01 3.2468926906585693e-01</leafValues></_>
                    <_>
                        <internalNodes>
                            0 -1 88 -248190238 -396017276 1691951208 -301864546
                            1083372885 -511639533 1176839488 1095463363</internalNodes>
                        <leafValues>
                            -6.2713831663131714e-01 3.1532597541809082e-01</leafValues></_>
                    <_>
                        <internalNodes>
                            0 -1 24 -757079954 1913586269 1073790508 1762705971
                            -1591590886 -2094501360 1229600002 -682951854</internalNodes>
                        <leafValues>
                            -4.5449364185333252e-01 4.3941679596900940e-01</leafValues></_>
                    <_>
                        <internalNodes>
                            0 -1 219 1521229006 996380774 -800212882 842136194 -89642368
                            1732750894 -1374439441 -128216513</internalNodes>
                        <leafValues>
                            -5.0522953271865845e-01 4.1708704829216003e-01</leafValues></_>
                    <_>
                        <internalNodes>
                            0 -1 251 -1904221725 -24411992 -1513781036 1654168536
                            859931522 67141830 626383367 2132898761</internalNodes>
                        <leafValues>
                            -5.1664692163467407e-01 4.1175639629364014e-01</leafValues></_>
                    <_>
                        <internalNodes>
                            0 -1 64 1436143279 2025798783 -1134535077 1526816639
                            -547174468 -682205357 -577206273 -162071618</internalNodes>
                        <leafValues>
                            -3.4492841362953186e-01 6.2402796745300293e-01</leafValues></_>
                    <_>
                        <internalNodes>
                            0 -1 118 -1011797776 -188362595 12638895 811401439
                            -401587096 -586948544 -1698461377 -1687344498</internalNodes>
                        <leafValues>
                            -4.5121338963508606e-01 4.8209056258201599e-01</leafValues></_></weakClassifiers></_>
            <!-- stage 11 -->
            <_>
                <maxWeakCount>15</maxWeakCount>
                <stageThreshold>-1.9417007267475128e-01</stageThreshold>
                <weakClassifiers>
                    <_>
                        <internalNodes>
                            0 -1 159 -1810557740 -1224348604 461280767 1464434007
                            1517765870 -725238081 -1571373378 -1103444194</internalNodes>
                        <leafValues>
                            -1.4080163836479187e-01 6.7706620693206787e-01</leafValues></_>
                    <_>
                        <internalNodes>
                            0 -1 119 -757858180 -704648522 -892321153 1892736255
                            -1630928855 -591393023 -1878929669 -619557284</internalNodes>
                        <leafValues>
                            -3.8588657975196838e-01 4.7685009241104126e-01</leafValues></_>
                    <_>
                        <internalNodes>
                            0 -1 76 -1652424973 -145952814 -1358318117 -61352975
                            -1695884805 -135277635 1179424223 -1010906883</internalNodes>
                        <leafValues>
                            -2.8928148746490479e-01 6.2776350975036621e-01</leafValues></_>
                    <_>
                        <internalNodes>
                            0 -1 209 -644207992 -1836597208 -710980751 -731914411
                            -2111908470 -1937348349 -1788870261 1427951817</internalNodes>
                        <leafValues>
                            -4.7861495614051819e-01 3.9984133839607239e-01</leafValues></_>
                    <_>
                        <internalNodes>
                            0 -1 6 36417975 -571216087 2080342003 -1084779229 -292044826
                            -562450569 -279068682 -1645875631</internalNodes>
                        <leafValues>
                            -4.1903159022331238e-01 4.8850905895233154e-01</leafValues></_>
                    <_>
                        <internalNodes>
                            0 -1 210 -1806583984 -2063048256 1628782961 1168373469
                            271174556 -1925775125 -2137283155 -2083002424</internalNodes>
                        <leafValues>
                            -4.3722215294837952e-01 4.3051791191101074e-01</leafValues></_>
                    <_>
                        <internalNodes>
                            0 -1 191 -1768259040 -1618509424 1233239412 490312065
                            157749206 -896823847 546415849 -2003949475</internalNodes>
                        <leafValues>
                            -4.7756049036979675e-01 3.9815393090248108e-01</leafValues></_>
                    <_>
                        <internalNodes>
                            0 -1 195 -612426531 -1183351003 -1574986156 1397616638
                            -1229496626 1566865670 -790446474 -1188306966</internalNodes>
                        <leafValues>
                            -3.8035440444946289e-01 4.9756467342376709e-01</leafValues></_>
                    <_>
                        <internalNodes>
                            0 -1 248 232313062 -724082624 620790130 -384444279
                            -866154678 1388433442 -1601553633 -1819951371</internalNodes>
                        <leafValues>
                            -4.6173509955406189e-01 4.1845449805259705e-01</leafValues></_>
                    <_>
                        <internalNodes>
                            0 -1 78 1192623859 -1381261336 1198646061 -269340238
                            220471025 -436243462 1333201874 -303073322</internalNodes>
                        <leafValues>
                            -3.5190761089324951e-01 5.5517852306365967e-01</leafValues></_>
                    <_>
                        <internalNodes>
                            0 -1 148 -1043399534 -249031824 -938242042 -1823882715
                            -1433927209 453208583 46368218 1009243691</internalNodes>
                        <leafValues>
                            -4.9231874942779541e-01 4.1204875707626343e-01</leafValues></_>
                    <_>
                        <internalNodes>
                            0 -1 282 -2146878846 1524291404 -2080143990 1940410516
                            1020306082 -903091613 198398137 -36730372</internalNodes>
                        <leafValues>
                            -4.9177452921867371e-01 4.2019751667976379e-01</leafValues></_>
                    <_>
                        <internalNodes>
                            0 -1 122 180885968 1174221853 -913178593 1692084001
                            2034255896 -1562674584 -633279594 153623499</internalNodes>
                        <leafValues>
                            -6.1759001016616821e-01 3.2888460159301758e-01</leafValues></_>
                    <_>
                        <internalNodes>
                            0 -1 58 1991226169 1968456325 -1627525340 525171570 -256858
                            219799292 1063825084 -874914306</internalNodes>
                        <leafValues>
                            -4.0964847803115845e-01 5.2001470327377319e-01</leafValues></_>
                    <_>
                        <internalNodes>
                            0 -1 14 1512524683 -350871262 599333130 -1109137198
                            -1058624026 1078905230 1342863289 1089426547</internalNodes>
                        <leafValues>
                            -4.8150184750556946e-01 4.4542959332466125e-01</leafValues></_></weakClassifiers></_>
            <!-- stage 12 -->
            <_>
                <maxWeakCount>15</maxWeakCount>
                <stageThreshold>-1.3110004365444183e-01</stageThreshold>
                <weakClassifiers>
                    <_>
                        <internalNodes>
                            0 -1 55 1843855310 -50593794 2137433870 1978384268
                            -1107480450 1736390397 -26305538 1674703602</internalNodes>
                        <leafValues>
                            -2.5196850299835205e-01 6.3395488262176514e-01</leafValues></_>
                    <_>
                        <internalNodes>
                            0 -1 257 1992803407 -557109 -142967249 -40110801 -210772021
                            -129236994 794814087 -150217449</internalNodes>
                        <leafValues>
                            -2.5871074199676514e-01 6.3185459375381470e-01</leafValues></_>
                    <_>
                        <internalNodes>
                            0 -1 3 -14058573 -105008158 -1073826057 -100714510
                            -392036389 2109005815 1139625423 -1882202725</internalNodes>
                        <leafValues>
                            -2.9096576571464539e-01 6.1231487989425659e-01</leafValues></_>
                    <_>
                        <internalNodes>
                            0 -1 140 1225787480 198447164 1556484590 1595457937
                            2026919656 -827037555 999009470 690096800</internalNodes>
                        <leafValues>
                            -6.2359857559204102e-01 2.9679575562477112e-01</leafValues></_>
                    <_>
                        <internalNodes>
                            0 -1 136 -1693910536 -171839400 1934959193 1602191069
                            -1613774854 -298053695 -2072205885 -104727463</internalNodes>
                        <leafValues>
                            -3.9001345634460449e-01 4.6209821105003357e-01</leafValues></_>
                    <_>
                        <internalNodes>
                            0 -1 102 -162086776 -1814347055 38831566 -795757093
                            -610660328 -1335181167 486541019 1364453474</internalNodes>
                        <leafValues>
                            -5.0383311510086060e-01 3.7068483233451843e-01</leafValues></_>
                    <_>
                        <internalNodes>
                            0 -1 290 -205672521 -1582553312 -1611158044 -37800226
                            -1093099525 -33554437 -1925464307 -67132232</internalNodes>
                        <leafValues>
                            -3.4300732612609863e-01 5.9790229797363281e-01</leafValues></_>
                    <_>
                        <internalNodes>
                            0 -1 73 251765232 -120377319 1048301558 -351273231
                            -1747585701 2138439159 -1378222179 -895904307</internalNodes>
                        <leafValues>
                            -4.3269383907318115e-01 4.5642974972724915e-01</leafValues></_>
                    <_>
                        <internalNodes>
                            0 -1 29 -135184181 -4245261 1945822427 -1846904095
                            -616936308 1207932159 2137814085 -1530176353</internalNodes>
                        <leafValues>
                            -4.0557584166526794e-01 4.9666729569435120e-01</leafValues></_>
                    <_>
                        <internalNodes>
                            0 -1 158 -415924847 -1179453031 -311573163 -306569880
                            -277889297 -1367093979 2091423469 139423498</internalNodes>
                        <leafValues>
                            -4.0342557430267334e-01 4.9814870953559875e-01</leafValues></_>
                    <_>
                        <internalNodes>
                            0 -1 165 428355672 -331294527 428306619 -271605491
                            -1606109185 -607614686 -1679771638 1066926288</internalNodes>
                        <leafValues>
                            -5.2114510536193848e-01 3.8731041550636292e-01</leafValues></_>
                    <_>
                        <internalNodes>
                            0 -1 92 1341108222 -716894671 -1078984508 838875680
                            1095241884 1897665091 -972227828 737795662</internalNodes>
                        <leafValues>
                            -5.4398554563522339e-01 3.6965462565422058e-01</leafValues></_>
                    <_>
                        <internalNodes>
                            0 -1 188 386439868 -714436535 -1303788202 -573763192
                            -1149195563 -741335035 639344139 423108792</internalNodes>
                        <leafValues>
                            -5.3410452604293823e-01 3.8954675197601318e-01</leafValues></_>
                    <_>
                        <internalNodes>
                            0 -1 276 -545914662 -863686348 552797331 1947435697
                            184657056 -1979604964 1174555288 -230521654</internalNodes>
                        <leafValues>
                            -5.0607389211654663e-01 4.3161976337432861e-01</leafValues></_>
                    <_>
                        <internalNodes>
                            0 -1 50 1665857213 -705894150 1740698579 1878730290
                            1262919651 -35219534 939488431 -541100176</internalNodes>
                        <leafValues>
                            -3.8136056065559387e-01 5.8590674400329590e-01</leafValues></_></weakClassifiers></_>
            <!-- stage 13 -->
            <_>
                <maxWeakCount>15</maxWeakCount>
                <stageThreshold>-2.1328625082969666e-01</stageThreshold>
                <weakClassifiers>
                    <_>
                        <internalNodes>
                            0 -1 141 -1351852043 -1359004161 1072457727 -12665202
                            -1690499 -8404997 -1095237731 783941680</internalNodes>
                        <leafValues>
                            -2.2042341530323029e-01 6.3945919275283813e-01</leafValues></_>
                    <_>
                        <internalNodes>
                            0 -1 26 -30872322 2129161919 1850898036 337739621
                            -1631289120 -25215150 -1178937345 -596318873</internalNodes>
                        <leafValues>
                            -4.1212856769561768e-01 4.4812270998954773e-01</leafValues></_>
                    <_>
                        <internalNodes>
                            0 -1 227 -111389477 -1117782187 2065095062 -214303137
                            -2006133682 -26382593 -696267525 -79071109</internalNodes>
                        <leafValues>
                            -3.5460534691810608e-01 5.2515387535095215e-01</leafValues></_>
                    <_>
                        <internalNodes>
                            0 -1 71 1835454175 -1275555090 -1635995747 -813660328
                            -954137291 -27893917 2059573227 -11184917</internalNodes>
                        <leafValues>
                            -3.3935177326202393e-01 5.2950513362884521e-01</leafValues></_>
                    <_>
                        <internalNodes>
                            0 -1 39 671130664 -461253579 -376108620 -236350261 966631895
                            1024560635 -57698818 -1793485631</internalNodes>
                        <leafValues>
                            -5.7895821332931519e-01 3.2548618316650391e-01</leafValues></_>
                    <_>
                        <internalNodes>
                            0 -1 111 -1348908280 -494234843 -586673176 -309012165
                            -1686248970 1993493635 -1175748261 397878441</internalNodes>
                        <leafValues>
                            -5.6263822317123413e-01 3.1539803743362427e-01</leafValues></_>
                    <_>
                        <internalNodes>
                            0 -1 239 -28966979 2067507144 1334142805 -738853035
                            -1414224582 -844638757 224976382 -541068842</internalNodes>
                        <leafValues>
                            -3.2694989442825317e-01 5.5783855915069580e-01</leafValues></_>
                    <_>
                        <internalNodes>
                            0 -1 18 795734119 2005757150 -679841832 1785252812
                            -655686443 -277451529 -913156878 -150413997</internalNodes>
                        <leafValues>
                            -3.2754766941070557e-01 5.7206171751022339e-01</leafValues></_>
                    <_>
                        <internalNodes>
                            0 -1 105 1754090695 -41917884 -734111073 -796179399
                            841142448 1629702914 -369071978 1325884958</internalNodes>
                        <leafValues>
                            -4.3197554349899292e-01 4.4211247563362122e-01</leafValues></_>
                    <_>
                        <internalNodes>
                            0 -1 164 -558121543 1906425736 -1346380297 1298955608
                            2138026997 -5505537 962698291 -1110442225</internalNodes>
                        <leafValues>
                            -3.1315517425537109e-01 6.1882269382476807e-01</leafValues></_>
                    <_>
                        <internalNodes>
                            0 -1 245 -110411710 -1013504997 1415257128 -1303756576
                            -644944290 1870880806 -2130571058 -1339528497</internalNodes>
                        <leafValues>
                            -5.2547985315322876e-01 3.8827598094940186e-01</leafValues></_>
                    <_>
                        <internalNodes>
                            0 -1 131 776440103 -1427272337 2122251818 -563708295
                            -1095286945 -134451465 1106128753 -1260902703</internalNodes>
                        <leafValues>
                            -3.9506521821022034e-01 5.2137184143066406e-01</leafValues></_>
                    <_>
                        <internalNodes>
                            0 -1 139 2035031900 368638847 -17006595 -302207017 872332797
                            2058895153 -4262083 -1431890314</internalNodes>
                        <leafValues>
                            -4.2664530873298645e-01 4.5102524757385254e-01</leafValues></_>
                    <_>
                        <internalNodes>
                            0 -1 174 -1169367823 1158398210 661239359 -382483628
                            -362523094 509675599 681821557 740798277</internalNodes>
                        <leafValues>
                            -4.9870979785919189e-01 3.8818466663360596e-01</leafValues></_>
                    <_>
                        <internalNodes>
                            0 -1 126 1480623636 -467967588 949359002 1137885614
                            124274784 1949304378 957422363 721492250</internalNodes>
                        <leafValues>
                            -6.8740814924240112e-01 3.0996719002723694e-01</leafValues></_></weakClassifiers></_>
            <!-- stage 14 -->
            <_>
                <maxWeakCount>15</maxWeakCount>
                <stageThreshold>-4.0808984637260437e-01</stageThreshold>
                <weakClassifiers>
                    <_>
                        <internalNodes>
                            0 -1 206 -1757981218 -720430763 42911770 1344208765
                            666824334 2064432197 -1463471530 2080112603</internalNodes>
                        <leafValues>
                            -9.6517413854598999e-02 6.6685235500335693e-01</leafValues></_>
                    <_>
                        <internalNodes>
                            0 -1 52 1560403394 -1349566270 1552117990 -160861353
                            -2147178801 1218045160 -2088376373 -940580363</internalNodes>
                        <leafValues>
                            -3.6795783042907715e-01 4.5220825076103210e-01</leafValues></_>
                    <_>
                        <internalNodes>
                            0 -1 254 -1682180104 -2090211072 2032396640 -585142447
                            -1414824469 698337521 -2138316573 -656965173</internalNodes>
                        <leafValues>
                            -3.5202386975288391e-01 4.7692847251892090e-01</leafValues></_>
                    <_>
                        <internalNodes>
                            0 -1 61 -1188367782 -939404947 1881946304 1795219693
                            -1079558064 1997677610 -547742935 -2145098661</internalNodes>
                        <leafValues>
                            -5.4964035749435425e-01 3.1284627318382263e-01</leafValues></_>
                    <_>
                        <internalNodes>
                            0 -1 198 203070448 -167541864 -879813311 -1391112107
                            -1658117158 693538536 507493158 1575828864</internalNodes>
                        <leafValues>
                            -5.0165027379989624e-01 3.3712273836135864e-01</leafValues></_>
                    <_>
                        <internalNodes>
                            0 -1 123 -220638982 -167571433 -1170122018 -799974970
                            -971978182 -362282871 838907871 1598738319</internalNodes>
                        <leafValues>
                            -4.5820409059524536e-01 3.9233663678169250e-01</leafValues></_>
                    <_>
                        <internalNodes>
                            0 -1 34 -1745978173 -574841 350418687 -269939166 -1319597914
                            -310748054 -1346322533 -12141046</internalNodes>
                        <leafValues>
                            -3.4791868925094604e-01 5.3394651412963867e-01</leafValues></_>
                    <_>
                        <internalNodes>
                            0 -1 175 -52162426 -875331540 520827275 -2096685025
                            -937810195 -1332528108 -28920681 673710822</internalNodes>
                        <leafValues>
                            -5.2574694156646729e-01 3.3796104788780212e-01</leafValues></_>
                    <_>
                        <internalNodes>
                            0 -1 142 -1978625064 -740999937 2145777087 -676255747
                            -1676436756 -402729030 -805640225 -1185413610</internalNodes>
                        <leafValues>
                            -4.0647235512733459e-01 4.7605085372924805e-01</leafValues></_>
                    <_>
                        <internalNodes>
                            0 -1 199 -1723474542 218308760 595677937 898077016
                            -1583229005 -1635072758 -2080141149 -1994192775</internalNodes>
                        <leafValues>
                            -4.4331204891204834e-01 4.2484498023986816e-01</leafValues></_>
                    <_>
                        <internalNodes>
                            0 -1 265 -791194736 -1984920929 -1001550710 194609389
                            1434903211 378312217 -465055610 227534699</internalNodes>
                        <leafValues>
                            -4.9784073233604431e-01 3.8838505744934082e-01</leafValues></_>
                    <_>
                        <internalNodes>
                            0 -1 186 1486557531 1530135316 1632255459 1125728285
                            785044490 1267577905 -623953166 1375855383</internalNodes>
                        <leafValues>
                            -4.9374619126319885e-01 4.0432357788085938e-01</leafValues></_>
                    <_>
                        <internalNodes>
                            0 -1 247 -167776062 -113295617 -218343267 -1662029517
                            -75499446 -238143829 823556844 -623530701</internalNodes>
                        <leafValues>
                            -3.8130265474319458e-01 5.0141960382461548e-01</leafValues></_>
                    <_>
                        <internalNodes>
                            0 -1 215 -1117923085 -142739626 466286463 1361476473
                            -1689273198 -67305482 -1071645502 -1097295123</internalNodes>
                        <leafValues>
                            -3.0955317616462708e-01 6.5100675821304321e-01</leafValues></_>
                    <_>
                        <internalNodes>
                            0 -1 112 -1001044316 823073246 500236384 736963592 196679684
                            1921620113 -1473918773 340453519</internalNodes>
                        <leafValues>
                            -6.7927390336990356e-01 3.2414695620536804e-01</leafValues></_></weakClassifiers></_>
            <!-- stage 15 -->
            <_>
                <maxWeakCount>15</maxWeakCount>
                <stageThreshold>-2.9853269457817078e-01</stageThreshold>
                <weakClassifiers>
                    <_>
                        <internalNodes>
                            0 -1 203 -682633010 1450040925 1610610627 1900488537
                            -1194617272 -1485438994 -1158364493 1392587503</internalNodes>
                        <leafValues>
                            -1.1318795382976532e-01 6.5813827514648438e-01</leafValues></_>
                    <_>
                        <internalNodes>
                            0 -1 75 -862981309 1841536070 771718655 -2089425561
                            -1899041809 -680169610 -856785687 -1058542141</internalNodes>
                        <leafValues>
                            -2.6251924037933350e-01 5.7121723890304565e-01</leafValues></_>
                    <_>
                        <internalNodes>
                            0 -1 207 -671228013 -106201688 -225477328 -673059363
                            -210021443 -1669685903 885902622 -709020261</internalNodes>
                        <leafValues>
                            -3.0434715747833252e-01 5.3299772739410400e-01</leafValues></_>
                    <_>
                        <internalNodes>
                            0 -1 133 1510494462 1495945275 -1006612265 131074589
                            2059423388 -218234446 -1593118960 404357898</internalNodes>
                        <leafValues>
                            -5.0897657871246338e-01 3.3528614044189453e-01</leafValues></_>
                    <_>
                        <internalNodes>
                            0 -1 277 -741881885 -246295482 1082131862 -918334188
                            -1307006749 -590544623 1925247626 -1033636734</internalNodes>
                        <leafValues>
                            -3.8411527872085571e-01 4.5305243134498596e-01</leafValues></_>
                    <_>
                        <internalNodes>
                            0 -1 54 -1532314398 1552575842 1343820804 486355538
                            -918232607 -1071380242 -1727695773 -1796782749</internalNodes>
                        <leafValues>
                            -5.6712698936462402e-01 3.3055552840232849e-01</leafValues></_>
                    <_>
                        <internalNodes>
                            0 -1 97 -1292156886 -717180270 -1102856190 -703411512
                            504649740 400320590 497544799 842730126</internalNodes>
                        <leafValues>
                            -6.1550801992416382e-01 2.6584950089454651e-01</leafValues></_>
                    <_>
                        <internalNodes>
                            0 -1 262 2074035214 -2038345212 -1064889792 1220561609
                            -799017598 -1927869152 2051267530 1882848164</internalNodes>
                        <leafValues>
                            -5.4079580307006836e-01 3.1214752793312073e-01</leafValues></_>
                    <_>
                        <internalNodes>
                            0 -1 110 -736065544 777475546 1352173901 -271240718
                            207982515 -1427529674 1233796767 -1513672383</internalNodes>
                        <leafValues>
                            -4.4200414419174194e-01 3.9697253704071045e-01</leafValues></_>
                    <_>
                        <internalNodes>
                            0 -1 36 635103939 -1191401873 2058416127 -1969148705
                            -698298731 -453153287 -11170051 -1504201634</internalNodes>
                        <leafValues>
                            -3.8430285453796387e-01 4.7061449289321899e-01</leafValues></_>
                    <_>
                        <internalNodes>
                            0 -1 242 -203746913 -35951009 -1068845161 408243423
                            1919648966 -84455523 1448846488 1634587696</internalNodes>
                        <leafValues>
                            -3.8833254575729370e-01 4.6937447786331177e-01</leafValues></_>
                    <_>
                        <internalNodes>
                            0 -1 68 -17573921 -672943775 -318910237 -1453098351
                            -1985833846 -1836976384 -1996092517 -620586167</internalNodes>
                        <leafValues>
                            -3.0482596158981323e-01 6.1706477403640747e-01</leafValues></_>
                    <_>
                        <internalNodes>
                            0 -1 129 -1207562032 -908221098 -925334227 -880520794
                            -793234924 -1410695168 -1733185995 186561418</internalNodes>
                        <leafValues>
                            -5.1728230714797974e-01 3.8376426696777344e-01</leafValues></_>
                    <_>
                        <internalNodes>
                            0 -1 181 1400488427 -24436739 -432231 1606137645 -2054233289
                            -274726979 -1582849650 -629633741</internalNodes>
                        <leafValues>
                            -2.9567313194274902e-01 6.3990098237991333e-01</leafValues></_>
                    <_>
                        <internalNodes>
                            0 -1 177 1733705632 627381014 173871852 743165983 1518479376
                            1467460642 -28522444 852753381</internalNodes>
                        <leafValues>
                            -5.9540265798568726e-01 3.3323165774345398e-01</leafValues></_></weakClassifiers></_>
            <!-- stage 16 -->
            <_>
                <maxWeakCount>16</maxWeakCount>
                <stageThreshold>-2.5842070579528809e-01</stageThreshold>
                <weakClassifiers>
                    <_>
                        <internalNodes>
                            0 -1 84 -806130226 1828253354 -1535118072 -236519427
                            -1141412086 821389303 1911946559 1710817241</internalNodes>
                        <leafValues>
                            -2.7138644456863403e-01 6.0508954524993896e-01</leafValues></_>
                    <_>
                        <internalNodes>
                            0 -1 2 -1213548814 -1261600 1203711869 1069279858 -813769223
                            -540082970 1431586783 1334727770</internalNodes>
                        <leafValues>
                            -3.9078786969184875e-01 4.4532665610313416e-01</leafValues></_>
                    <_>
                        <internalNodes>
                            0 -1 285 -592620465 -809959829 2063310383 -1097833
                            -319060754 -1325498522 -51577618 -87368289</internalNodes>
                        <leafValues>
                            -3.0397039651870728e-01 5.6579661369323730e-01</leafValues></_>
                    <_>
                        <internalNodes>
                            0 -1 66 -2097155 -304792689 1279548437 2099773175
                            -1651343144 -1092229 -1559561409 -33822593</internalNodes>
                        <leafValues>
                            -2.7043670415878296e-01 6.0716348886489868e-01</leafValues></_>
                    <_>
                        <internalNodes>
                            0 -1 127 -1031089316 -717137573 1145379802 1335867863
                            -243254543 1509678015 1216842206 466460858</internalNodes>
                        <leafValues>
                            -4.2482629418373108e-01 3.5904318094253540e-01</leafValues></_>
                    <_>
                        <internalNodes>
                            0 -1 272 -1196438167 -1164398126 -44696107 939629752
                            -1947471911 -1145382946 719275250 -815539683</internalNodes>
                        <leafValues>
                            -3.5298332571983337e-01 4.4596263766288757e-01</leafValues></_>
                    <_>
                        <internalNodes>
                            0 -1 7 2024512443 -1100464414 1604845564 -739310798
                            212842458 1596717055 -1063399975 508396895</internalNodes>
                        <leafValues>
                            -3.6363840103149414e-01 4.4833666086196899e-01</leafValues></_>
                    <_>
                        <internalNodes>
                            0 -1 208 349168299 -799323344 726994193 1300843909
                            -1467795034 -894204154 211605743 1544372933</internalNodes>
                        <leafValues>
                            -4.0175008773803711e-01 4.0598818659782410e-01</leafValues></_>
                    <_>
                        <internalNodes>
                            0 -1 137 859605781 2030043865 667306625 -200589866
                            -1417235289 -1460723615 -1140038721 245131552</internalNodes>
                        <leafValues>
                            -4.2594042420387268e-01 3.9434263110160828e-01</leafValues></_>
                    <_>
                        <internalNodes>
                            0 -1 120 1743362485 -789341024 1973659047 -1024774352
                            -574835385 -35428616 -614404 -651801340</internalNodes>
                        <leafValues>
                            -3.0684959888458252e-01 5.4701137542724609e-01</leafValues></_>
                    <_>
                        <internalNodes>
                            0 -1 81 -1884619009 2100162368 -1353486864 -1209014589
                            97484490 -1940849944 249560657 -605857217</internalNodes>
                        <leafValues>
                            -3.2146027684211731e-01 5.4278993606567383e-01</leafValues></_>
                    <_>
                        <internalNodes>
                            0 -1 201 -1231824398 -2049786928 1029694225 1274194734
                            -540850586 -319888061 -591087872 -371235864</internalNodes>
                        <leafValues>
                            -3.7701511383056641e-01 4.5754680037498474e-01</leafValues></_>
                    <_>
                        <internalNodes>
                            0 -1 283 -72654136 -871819040 -1503400887 2030947715
                            -1465919234 -1065886306 -1074397473 -620501489</internalNodes>
                        <leafValues>
                            -3.6269366741180420e-01 5.0787132978439331e-01</leafValues></_>
                    <_>
                        <internalNodes>
                            0 -1 271 -5560118 -1616118003 -1076438656 -2129068571
                            1039801274 -1892812876 -1250459216 -916726050</internalNodes>
                        <leafValues>
                            -4.3134343624114990e-01 4.5091801881790161e-01</leafValues></_>
                    <_>
                        <internalNodes>
                            0 -1 104 301628512 2078126225 2119176275 1161886209
                            -972292090 -744603313 -832504950 -1519895660</internalNodes>
                        <leafValues>
                            -5.1499444246292114e-01 3.5312613844871521e-01</leafValues></_>
                    <_>
                        <internalNodes>
                            0 -1 286 60807738 -1647767289 -2147276461 -799951789
                            1173685282 -149159928 1351204235 428524358</internalNodes>
                        <leafValues>
                            -5.0727713108062744e-01 3.7978368997573853e-01</leafValues></_></weakClassifiers></_>
            <!-- stage 17 -->
            <_>
                <maxWeakCount>17</maxWeakCount>
                <stageThreshold>-3.6993062496185303e-01</stageThreshold>
                <weakClassifiers>
                    <_>
                        <internalNodes>
                            0 -1 80 -1433897800 -14158880 -1344012361 -1454409739
                            -1381042267 -403903556 -2086342913 -555411978</internalNodes>
                        <leafValues>
                            -1.0408163070678711e-01 6.6043955087661743e-01</leafValues></_>
                    <_>
                        <internalNodes>
                            0 -1 205 1065327758 -1756889331 1093658591 190109014
                            1877332550 -494932097 -1638302982 -144004866</internalNodes>
                        <leafValues>
                            -3.3355140686035156e-01 4.5415836572647095e-01</leafValues></_>
                    <_>
                        <internalNodes>
                            0 -1 4 -548588557 1976788963 -32773 117129187 107265452
                            -1493451009 -697407489 -961155186</internalNodes>
                        <leafValues>
                            -2.8464287519454956e-01 5.1458513736724854e-01</leafValues></_>
                    <_>
                        <internalNodes>
                            0 -1 154 -1151500963 190492319 -1967538247 462655129
                            -1396760868 -97813525 -855720806 -85268757</internalNodes>
                        <leafValues>
                            -2.6269894838333130e-01 5.5973917245864868e-01</leafValues></_>
                    <_>
                        <internalNodes>
                            0 -1 250 -403463733 1093246264 -1274216534 1931541557
                            -268568329 1414107989 427618751 -829557277</internalNodes>
                        <leafValues>
                            -3.4404394030570984e-01 4.6410503983497620e-01</leafValues></_>
                    <_>
                        <internalNodes>
                            0 -1 167 -105978415 -335906124 -416744687 -646592527
                            41883527 -1360343108 -1266822440 -577061345</internalNodes>
                        <leafValues>
                            -3.0583041906356812e-01 5.5026704072952271e-01</leafValues></_>
                    <_>
                        <internalNodes>
                            0 -1 89 -45301046 -746812957 -531610112 1615395188 874742346
                            1241677844 1905287748 1918235319</internalNodes>
                        <leafValues>
                            -4.9411869049072266e-01 3.5542216897010803e-01</leafValues></_>
                    <_>
                        <internalNodes>
                            0 -1 79 1954785267 1383069456 -403771400 1420284404
                            -277624340 -1912647685 1759989559 -1010220606</internalNodes>
                        <leafValues>
                            -3.8726881146430969e-01 4.3204915523529053e-01</leafValues></_>
                    <_>
                        <internalNodes>
                            0 -1 243 1495864331 -61405866 291718788 -1302910393
                            -611925494 923901969 -1207376706 908206107</internalNodes>
                        <leafValues>
                            -4.9777171015739441e-01 3.3906149864196777e-01</leafValues></_>
                    <_>
                        <internalNodes>
                            0 -1 224 -315894960 -123148248 1837288497 1841591957
                            -623677510 -2064691766 -976259638 -653370677</internalNodes>
                        <leafValues>
                            -3.7154951691627502e-01 4.8574963212013245e-01</leafValues></_>
                    <_>
                        <internalNodes>
                            0 -1 12 -1557559398 1292297824 2137613497 730764983
                            -1368683657 -311232604 1949695743 -1446411790</internalNodes>
                        <leafValues>
                            -3.9339908957481384e-01 4.3180796504020691e-01</leafValues></_>
                    <_>
                        <internalNodes>
                            0 -1 156 -675545151 -224891253 -308020847 -582404545
                            -1477322567 -1816297629 -781871909 -2030051354</internalNodes>
                        <leafValues>
                            -2.6740413904190063e-01 6.3234704732894897e-01</leafValues></_>
                    <_>
                        <internalNodes>
                            0 -1 280 -12606517 1342245520 -538234896 -870587160
                            -2084588166 1095751143 -461777561 -451683871</internalNodes>
                        <leafValues>
                            -3.3044233918190002e-01 5.1972049474716187e-01</leafValues></_>
                    <_>
                        <internalNodes>
                            0 -1 32 -747054490 -1604877614 -1797043089 -1649571173
                            1111216642 -1842929663 26646570 560943499</internalNodes>
                        <leafValues>
                            -5.0883615016937256e-01 3.5723042488098145e-01</leafValues></_>
                    <_>
                        <internalNodes>
                            0 -1 117 991645928 -482737165 112985431 -1303653487
                            1395001480 -1843339007 -367487246 939560017</internalNodes>
                        <leafValues>
                            -5.3288984298706055e-01 3.2049590349197388e-01</leafValues></_>
                    <_>
                        <internalNodes>
                            0 -1 138 758059225 -1703952965 251477586 -424005716
                            1949849467 -1233259011 1182789201 -5722488</internalNodes>
                        <leafValues>
                            -3.3931407332420349e-01 5.3814125061035156e-01</leafValues></_>
                    <_>
                        <internalNodes>
                            0 -1 144 1551735121 -1421508996 968834335 1341062975
                            -211812810 -1770586832 1314253422 767277243</internalNodes>
                        <leafValues>
                            -3.6979785561561584e-01 4.7185477614402771e-01</leafValues></_></weakClassifiers></_>
            <!-- stage 18 -->
            <_>
                <maxWeakCount>17</maxWeakCount>
                <stageThreshold>-4.5159545540809631e-01</stageThreshold>
                <weakClassifiers>
                    <_>
                        <internalNodes>
                            0 -1 163 -752543576 598800936 -557978434 -1342210313
                            1979708948 795082550 1357322260 968568735</internalNodes>
                        <leafValues>
                            -2.3076923191547394e-01 5.9639978408813477e-01</leafValues></_>
                    <_>
                        <internalNodes>
                            0 -1 30 -541606153 2055077622 -1487799045 2099998331
                            -10711812 -118609946 -1629430241 -63996698</internalNodes>
                        <leafValues>
                            -2.5278171896934509e-01 5.5615240335464478e-01</leafValues></_>
                    <_>
                        <internalNodes>
                            0 -1 267 -235427078 296805659 159617464 602515790
                            -1178027176 438366305 969739740 -1846939998</internalNodes>
                        <leafValues>
                            -4.0731096267700195e-01 3.6922296881675720e-01</leafValues></_>
                    <_>
                        <internalNodes>
                            0 -1 171 -1154740012 -404549557 -1254077301 2067989539
                            290216206 719958699 -1431638113 581458623</internalNodes>
                        <leafValues>
                            -5.2781033515930176e-01 2.9404246807098389e-01</leafValues></_>
                    <_>
                        <internalNodes>
                            0 -1 255 680389631 -1312953864 1610456522 -616211363
                            464513496 -745849219 -1758745106 -721528438</internalNodes>
                        <leafValues>
                            -3.6189791560173035e-01 4.8816773295402527e-01</leafValues></_>
                    <_>
                        <internalNodes>
                            0 -1 41 -1685463616 -464555310 -924597777 -270020416
                            1246355673 -1731132901 -1012596607 1083040962</internalNodes>
                        <leafValues>
                            -5.0481557846069336e-01 3.2441186904907227e-01</leafValues></_>
                    <_>
                        <internalNodes>
                            0 -1 107 -558446370 -1378226355 373453425 -1542946934
                            2146730022 -235604100 609533898 -1147152406</internalNodes>
                        <leafValues>
                            -3.9247539639472961e-01 4.4005674123764038e-01</leafValues></_>
                    <_>
                        <internalNodes>
                            0 -1 20 764109035 1798385642 -1352205784 -754953021
                            -21626544 -1036912865 1547785283 -922684142</internalNodes>
                        <leafValues>
                            -3.7253215909004211e-01 4.2960435152053833e-01</leafValues></_>
                    <_>
                        <internalNodes>
                            0 -1 151 -1149217772 -604202771 -1107536067 228695421
                            -547611661 -839131937 -1481998487 -1976326096</internalNodes>
                        <leafValues>
                            -3.9203810691833496e-01 4.2824545502662659e-01</leafValues></_>
                    <_>
                        <internalNodes>
                            0 -1 241 1350076420 814724083 -266003686 370711771
                            -1375727552 -348674886 2047630664 856312510</internalNodes>
                        <leafValues>
                            -6.1131858825683594e-01 2.7505508065223694e-01</leafValues></_>
                    <_>
                        <internalNodes>
                            0 -1 130 236988208 -2058780424 659592406 -1927494366
                            12821403 -1649359795 1609509807 458245189</internalNodes>
                        <leafValues>
                            -6.2969553470611572e-01 2.6426255702972412e-01</leafValues></_>
                    <_>
                        <internalNodes>
                            0 -1 60 -247794838 1744934931 -1786751926 -2130660318
                            1320030396 598297353 160920290 750155339</internalNodes>
                        <leafValues>
                            -5.4518616199493408e-01 3.4030643105506897e-01</leafValues></_>
                    <_>
                        <internalNodes>
                            0 -1 278 -564537 -647233629 -354359591 76259750 -822086154
                            234354035 -1831832342 -648948765</internalNodes>
                        <leafValues>
                            -3.6228564381599426e-01 5.2349817752838135e-01</leafValues></_>
                    <_>
                        <internalNodes>
                            0 -1 178 1163517651 -214761804 2143198776 -545526849
                            1962802675 -307112391 -273400409 -1247813966</internalNodes>
                        <leafValues>
                            -3.1995823979377747e-01 5.5878996849060059e-01</leafValues></_>
                    <_>
                        <internalNodes>
                            0 -1 187 51300396 566010256 -1737449342 -1585348569
                            -2093276560 1754376367 -287897536 1036174336</internalNodes>
                        <leafValues>
                            -6.2985873222351074e-01 2.9948553442955017e-01</leafValues></_>
                    <_>
                        <internalNodes>
                            0 -1 69 -252052609 -1124127991 -547822879 869613482
                            -599617333 -145916330 1993818079 -11688883</internalNodes>
                        <leafValues>
                            -2.9753878712654114e-01 6.2817561626434326e-01</leafValues></_>
                    <_>
                        <internalNodes>
                            0 -1 37 877458157 -117539297 -356504011 1789021677
                            -269049625 1002376257 -2015195443 -32919947</internalNodes>
                        <leafValues>
                            -3.2409584522247314e-01 5.2593278884887695e-01</leafValues></_></weakClassifiers></_>
            <!-- stage 19 -->
            <_>
                <maxWeakCount>16</maxWeakCount>
                <stageThreshold>-7.1903753280639648e-01</stageThreshold>
                <weakClassifiers>
                    <_>
                        <internalNodes>
